{"format":"thinkstock-ai-market-model-v2","generated_at":"2026-07-23T16:50:16Z","training_window":{"start":"2001-07-24","end":"2026-07-23","requested_max_calendar_years":25,"available_calendar_years":25.0,"candidate_lookback_years":[5,10,15,25],"short_listing_policy":"use all available history after 252 feature days plus the forecast horizon"},"universe":{"source":"KRX Open API daily trading information","base_date":"2026-07-22","selection":{"KOSPI":200,"KOSDAQ":200},"tickers":{"KOSPI":["005930.KS","000660.KS","402340.KS","005935.KS","009150.KS","005380.KS","373220.KS","032830.KS","207940.KS","105560.KS","028260.KS","000270.KS","055550.KS","329180.KS","012330.KS","012450.KS","034730.KS","034020.KS","068270.KS","086790.KS","006400.KS","035420.KS","066570.KS","267260.KS","010120.KS","000810.KS","042660.KS","009540.KS","298040.KS","005490.KS","316140.KS","015760.KS","006800.KS","010130.KS","042700.KS","017670.KS","096770.KS","000150.KS","011200.KS","138040.KS","010140.KS","033780.KS","051910.KS","064350.KS","267250.KS","024110.KS","010950.KS","035720.KS","011070.KS","018260.KS","003550.KS","079550.KS","086280.KS","047810.KS","278470.KS","030200.KS","003670.KS","071050.KS","272210.KS","307950.KS","000720.KS","005830.KS","005940.KS","259960.KS","323410.KS","001260.KS","003490.KS","047050.KS","016360.KS","443060.KS","161390.KS","006260.KS","352820.KS","003230.KS","028050.KS","039490.KS","078930.KS","090430.KS","005387.KS","180640.KS","007660.KS","021240.KS","000880.KS","047040.KS","064400.KS","032640.KS","241560.KS","267270.KS","326030.KS","353200.KS","000100.KS","377300.KS","138930.KS","029780.KS","001440.KS","004170.KS","062040.KS","271560.KS","034220.KS","175330.KS","088980.KS","128940.KS","036570.KS","009830.KS","000990.KS","005385.KS","454910.KS","011790.KS","082740.KS","001040.KS","088350.KS","023530.KS","111770.KS","051900.KS","018880.KS","002380.KS","010060.KS","000500.KS","052690.KS","004020.KS","066970.KS","001450.KS","035250.KS","069960.KS","036460.KS","011780.KS","031210.KS","251270.KS","103590.KS","022100.KS","383220.KS","097950.KS","139130.KS","483650.KS","028670.KS","012750.KS","017800.KS","336260.KS","302440.KS","026960.KS","011170.KS","004800.KS","005850.KS","009420.KS","006360.KS","279570.KS","014680.KS","009970.KS","450080.KS","081660.KS","375500.KS","003690.KS","001720.KS","000240.KS","161890.KS","008930.KS","139480.KS","005440.KS","007340.KS","004990.KS","489790.KS","071970.KS","204320.KS","004370.KS","030000.KS","085620.KS","475150.KS","018670.KS","007070.KS","282330.KS","051600.KS","192820.KS","008770.KS","002790.KS","462870.KS","073240.KS","439260.KS","103140.KS","281820.KS","395400.KS","457190.KS","112610.KS","000155.KS","000120.KS","000680.KS","023590.KS","011210.KS","020150.KS","001740.KS","120110.KS","007810.KS","001800.KS","322000.KS","006040.KS","001120.KS","089860.KS","020560.KS","009155.KS","006280.KS","069620.KS"],"KOSDAQ":["196170.KQ","247540.KQ","086520.KQ","277810.KQ","036930.KQ","240810.KQ","058470.KQ","319660.KQ","298380.KQ","039030.KQ","028300.KQ","222800.KQ","000250.KQ","440110.KQ","141080.KQ","214450.KQ","108490.KQ","403870.KQ","095610.KQ","095340.KQ","214370.KQ","214150.KQ","145020.KQ","084370.KQ","347850.KQ","131290.KQ","031980.KQ","080220.KQ","950160.KQ","087010.KQ","067310.KQ","237690.KQ","310210.KQ","178320.KQ","257720.KQ","064760.KQ","319400.KQ","226950.KQ","089970.KQ","005290.KQ","357780.KQ","263750.KQ","058610.KQ","098460.KQ","032820.KQ","140860.KQ","089030.KQ","068760.KQ","420770.KQ","290650.KQ","140410.KQ","010170.KQ","035900.KQ","131970.KQ","041510.KQ","060370.KQ","007390.KQ","096530.KQ","183300.KQ","083650.KQ","082920.KQ","030530.KQ","043260.KQ","000090.KQ","218410.KQ","078600.KQ","127120.KQ","039200.KQ","437730.KQ","195940.KQ","166090.KQ","031330.KQ","003380.KQ","458870.KQ","323280.KQ","475830.KQ","491000.KQ","036540.KQ","347700.KQ","099320.KQ","388210.KQ","101490.KQ","038500.KQ","090710.KQ","252990.KQ","086450.KQ","241710.KQ","204270.KQ","293490.KQ","085660.KQ","083450.KQ","376900.KQ","232140.KQ","281740.KQ","417200.KQ","388720.KQ","019210.KQ","476830.KQ","213420.KQ","056190.KQ","100790.KQ","065350.KQ","122870.KQ","074600.KQ","033100.KQ","032190.KQ","328130.KQ","137400.KQ","041830.KQ","014620.KQ","189300.KQ","090360.KQ","035760.KQ","466100.KQ","079940.KQ","036830.KQ","093320.KQ","032500.KQ","115180.KQ","006730.KQ","161580.KQ","445680.KQ","053800.KQ","253450.KQ","094170.KQ","490470.KQ","053610.KQ","119850.KQ","048410.KQ","102710.KQ","397030.KQ","037460.KQ","439960.KQ","052400.KQ","023160.KQ","050890.KQ","122640.KQ","222080.KQ","171090.KQ","067160.KQ","225570.KQ","045100.KQ","041960.KQ","112040.KQ","383310.KQ","046890.KQ","044490.KQ","399720.KQ","170920.KQ","086900.KQ","121600.KQ","476060.KQ","059090.KQ","052020.KQ","101160.KQ","160190.KQ","219130.KQ","060250.KQ","251970.KQ","056080.KQ","290550.KQ","295310.KQ","211050.KQ","475960.KQ","456160.KQ","033500.KQ","124500.KQ","078130.KQ","034950.KQ","376300.KQ","358570.KQ","015750.KQ","064290.KQ","035890.KQ","126340.KQ","460930.KQ","033790.KQ","336570.KQ","099190.KQ","144960.KQ","425420.KQ","082270.KQ","036810.KQ","214430.KQ","009520.KQ","327260.KQ","033640.KQ","104830.KQ","340570.KQ","348370.KQ","077360.KQ","253590.KQ","477850.KQ","272290.KQ","089890.KQ","389470.KQ","215200.KQ","174900.KQ","027360.KQ","278280.KQ"]},"price_history_available":390,"training_tickers":390,"price_fetch_failures":1},"feature_schema":{"format":"ai-market-features-v1","names":["return_5_vol_scaled","return_20_vol_scaled","return_63_vol_scaled","return_126_vol_scaled","log_volatility_20_63","log_volatility_63_126","downside_deviation_63","drawdown_63_vol_scaled","rsi_14","macd_oscillator_vol_scaled","market_return_20_vol_scaled","market_return_63_vol_scaled","market_return_126_vol_scaled","market_correlation_252","market_beta_252","market_downside_beta_252","relative_return_63_vol_scaled"],"target":"forward_log_return","market_mapping":{"KOSPI":"^KS11","KOSDAQ":"^KQ11"}},"validation":{"method":"common recent three-fold purged walk-forward model selection","sample_step_trading_days":21,"purge_rule":"training target_date must be earlier than validation anchor_date","baseline":"bounded five-day momentum","candidate_lookback_years":[5,10,15,25],"candidate_nonlinear_features":[0,8,16],"candidate_blend_weights":[0.6,0.8,1.0],"selection_rule":"lowest purged validation MAE, then highest direction accuracy","reliability_formula":"positive MAE improvement, direction >= 0.5, fold consistency, sample coverage"},"horizons":{"20":{"horizon_days":20,"lambda":4096.0,"blend_weight":1.0,"feature_transform":{"format":"random-tanh-v1","input_size":17,"hidden_size":16,"weights":[[0.2004226852,-0.6115693538,-0.1359730669,-0.3295403062,-0.5292576806,0.1073272243,0.0542147504,-0.1301338032,-0.0398266023,-0.3287114795,0.1444879596,-0.387385773,0.4814037993,0.3942999661,-0.5170526948,0.1734130251],[-0.2111771068,0.2497758798,0.011890107,-0.5668236905,-0.5088560807,-0.1775063258,0.148684059,0.3020709196,0.3401393819,0.3263241403,-0.0234983481,-0.041936559,-0.2197752123,-0.2011064734,0.3839321804,-0.0383030718],[0.220444821,-0.191968253,-0.0434657276,0.2048329843,-0.0288633113,0.1441214914,-0.0431647018,0.0265524728,0.3897393518,0.0313817649,0.1622957253,-0.06619461,0.1308208496,-0.6775428872,-0.0515094409,0.2604253211],[0.3712678639,-0.1278107419,-0.2187894286,0.3257410229,-0.2938192371,-0.3006780912,0.0005474029,-0.1424696764,0.5353692799,-0.2371432094,0.3581047787,0.1292906491,0.0723602538,-0.2144363616,-0.127796762,-0.0162317748],[-0.211872406,-0.4522664635,0.0148297578,-0.2006313326,-0.0626898265,-0.2372445069,0.0531213153,0.0342283541,-0.0025806697,0.0404185576,-0.3851697435,-0.3526954135,-0.3771302826,0.2102361421,-0.0846879326,-0.1534289311],[-0.0253802351,-0.2964179745,-0.1081889022,-0.3991252799,0.2450156601,-0.166618337,0.8083802662,0.1617183192,0.0209168433,-0.2103624912,0.0139487259,0.1539484986,0.2072519396,0.0061161119,-0.6937833808,0.2050646456],[-0.1797062056,-0.2472005825,0.2238282545,-0.196436866,0.2639590501,-0.654667575,0.5279541871,-0.3554462961,-0.1161166688,0.6001657888,-0.161752135,0.3525375767,0.0201018067,0.2231872329,0.0177971912,0.007757951],[-0.1821635658,0.033648469,-0.2757407096,-0.4613841651,-0.3589733532,0.2782569944,0.0688593092,0.076344209,0.42583294,-0.0793252701,-0.0199944468,-0.0796274672,0.435302526,0.1754184113,-0.1882172074,0.1544096029],[0.2248954912,0.0005776649,-0.5733893231,0.0610402327,-0.2193191014,-0.4101386494,-0.2802980333,0.2638697058,0.0549794024,0.3691188873,-0.0832435557,0.2211940641,0.1681360025,0.0068071893,0.0232873937,-0.2443969757],[0.6077447623,-0.0379845662,-0.3477762649,-0.3430923972,0.0399260041,-0.3871161413,-0.4921604332,0.5393035445,0.0760431068,-0.1342244271,0.1072888328,-0.0283632111,-0.0235239679,0.4191054024,-0.1690056592,-0.0112416231],[-0.0224139909,0.216338672,0.8204198557,-0.5883396237,-0.2669111529,-0.4326404148,-0.4270582635,0.0942181931,0.6070879537,0.2009141318,0.0273371905,-0.2535497158,0.0337982194,-0.0773171132,0.2971324056,0.1549144798],[0.3873716303,-0.6098163357,0.1250373766,-0.0901590531,0.3240125672,0.1679565763,-0.0610748931,0.2220899217,0.5818575609,0.086566422,-0.2721441256,0.3876044967,-0.3586743524,-0.1690978545,-0.0174753287,-0.2500320705],[-0.0807313517,-0.0437656227,-0.6149933483,-0.3304012136,0.3646451528,-0.1114716712,-0.4311472808,-0.3858969622,0.4165905015,-0.0409688107,0.193671937,0.0047892588,0.2585761622,-0.0950237421,0.3968050794,-0.3927680921],[-0.4067182134,0.2626159275,0.0119511102,-0.1677845389,-0.1719021575,-0.065321396,-0.1194135003,-0.0497492281,0.3732845941,0.2298102939,-0.4788600214,0.1027044791,-0.3846343411,0.1457660742,-0.0671651067,-0.1802936122],[-0.220939813,-0.3394901419,-0.4740209451,0.0849249234,0.1059882442,0.2212912491,0.0772064921,0.3780438942,-0.2484719792,-0.0912504202,-0.227913338,-0.2107513906,-0.0928285374,0.4083691647,-0.1057197989,0.1760898251],[-0.8069013779,0.1885194729,0.5373769385,-0.1784616711,0.3708134822,-0.2260388213,0.1003494111,0.1869674888,0.2817513262,0.5888191104,0.1659382131,0.0378559144,0.6567553398,-0.2786305218,0.5964645925,0.6235836329],[-0.3120517017,0.6744168033,0.0010508061,0.2965514532,-0.1700593702,0.0110637707,-0.1802551728,0.3184104086,-0.0443035043,0.3891619622,-0.4755467337,0.0920610022,0.492400035,0.1185027634,-0.2059886082,0.2028230876]],"biases":[0.5564788666,-0.7442151464,-0.1669438248,-0.2629550938,-0.4650654366,0.0333290615,-0.5005731986,0.0498536665,0.1323369159,0.7331855863,-0.6681531466,0.5705437467,-0.5969892869,0.0885196143,0.6382024641,-0.5727096453]},"intercept":0.0070542508,"coefficients":[-0.0005277721,-0.0007821521,-0.0008393115,-0.0026704495,0.004762216,0.0022968505,0.0021709901,-0.004228952,0.0009438686,0.0016579232,-0.0032928152,-0.0039262895,-0.0047453895,0.0077033676,-0.0045313339,0.0060356271,0.0028815983,0.0062686116,0.0006281302,0.0019299456,-0.0022381394,0.0029954474,0.0089514347,-0.0017814268,0.0015784908,0.0077608026,9.62676e-05,0.0053467475,-0.000255403,-0.0023015253,-0.0050872532,-0.0030574458,0.0002986722],"means":[0.0107632838,0.036936563,0.046715635,0.0686948444,-0.0595104236,-0.0225943867,0.9651194879,-0.9099393734,0.0062606116,0.0034512721,0.1256276666,0.2352810495,0.2747302978,0.4098352791,0.9341775212,0.9911437427,-0.1884008175,-0.2895277061,-0.6045038592,0.2236088392,-0.2117860125,0.3208928808,-0.6160368447,-0.0685869368,0.041476248,0.0761587364,0.9257553793,-0.6392051193,0.6595013227,-0.3850882627,0.0993295085,0.767307782,-0.0999439476],"standard_deviations":[1.0085828306,0.9761256611,0.927809817,0.9364656439,0.2728958521,0.1770662492,0.1701990662,0.370113274,0.3386186398,0.3336575296,1.0172987318,0.9646833565,1.0022244023,0.1577392926,0.3765154247,0.4593286428,1.0437458551,0.5670319225,0.4912198661,0.5776568184,0.6903371035,0.6518611597,0.3583608655,0.5395485041,0.5282320985,0.7964934473,0.1008314864,0.3000275022,0.2662908633,0.5440702956,0.6139827806,0.3235439784,0.5368002372],"training_samples":52294,"validation_samples":12665,"validation_folds":3,"winning_folds":3,"metrics":{"mae":0.11501888,"baseline_mae":0.12359711,"improvement":0.069405,"direction_accuracy":0.518674,"baseline_direction_accuracy":0.478326},"residual_interval_80":{"lower":-0.16020792,"upper":0.20042209,"coverage":0.799921},"reliability":0.597541,"selected_lookback_years":15,"lookback_candidates":[{"years":5,"mae":0.11530359,"baseline_mae":0.12359711,"improvement":0.067101,"direction_accuracy":0.51512,"blend_weight":1.0,"nonlinear_features":8,"validation_samples":12665},{"years":10,"mae":0.11503676,"baseline_mae":0.12359711,"improvement":0.06926,"direction_accuracy":0.513857,"blend_weight":1.0,"nonlinear_features":16,"validation_samples":12665},{"years":15,"mae":0.11501888,"baseline_mae":0.12359711,"improvement":0.069405,"direction_accuracy":0.518674,"blend_weight":1.0,"nonlinear_features":16,"validation_samples":12665},{"years":25,"mae":0.11515691,"baseline_mae":0.12359711,"improvement":0.068288,"direction_accuracy":0.513383,"blend_weight":1.0,"nonlinear_features":16,"validation_samples":12665}]},"63":{"horizon_days":63,"lambda":4096.0,"blend_weight":1.0,"feature_transform":{"format":"random-tanh-v1","input_size":17,"hidden_size":16,"weights":[[0.2004226852,-0.6115693538,-0.1359730669,-0.3295403062,-0.5292576806,0.1073272243,0.0542147504,-0.1301338032,-0.0398266023,-0.3287114795,0.1444879596,-0.387385773,0.4814037993,0.3942999661,-0.5170526948,0.1734130251],[-0.2111771068,0.2497758798,0.011890107,-0.5668236905,-0.5088560807,-0.1775063258,0.148684059,0.3020709196,0.3401393819,0.3263241403,-0.0234983481,-0.041936559,-0.2197752123,-0.2011064734,0.3839321804,-0.0383030718],[0.220444821,-0.191968253,-0.0434657276,0.2048329843,-0.0288633113,0.1441214914,-0.0431647018,0.0265524728,0.3897393518,0.0313817649,0.1622957253,-0.06619461,0.1308208496,-0.6775428872,-0.0515094409,0.2604253211],[0.3712678639,-0.1278107419,-0.2187894286,0.3257410229,-0.2938192371,-0.3006780912,0.0005474029,-0.1424696764,0.5353692799,-0.2371432094,0.3581047787,0.1292906491,0.0723602538,-0.2144363616,-0.127796762,-0.0162317748],[-0.211872406,-0.4522664635,0.0148297578,-0.2006313326,-0.0626898265,-0.2372445069,0.0531213153,0.0342283541,-0.0025806697,0.0404185576,-0.3851697435,-0.3526954135,-0.3771302826,0.2102361421,-0.0846879326,-0.1534289311],[-0.0253802351,-0.2964179745,-0.1081889022,-0.3991252799,0.2450156601,-0.166618337,0.8083802662,0.1617183192,0.0209168433,-0.2103624912,0.0139487259,0.1539484986,0.2072519396,0.0061161119,-0.6937833808,0.2050646456],[-0.1797062056,-0.2472005825,0.2238282545,-0.196436866,0.2639590501,-0.654667575,0.5279541871,-0.3554462961,-0.1161166688,0.6001657888,-0.161752135,0.3525375767,0.0201018067,0.2231872329,0.0177971912,0.007757951],[-0.1821635658,0.033648469,-0.2757407096,-0.4613841651,-0.3589733532,0.2782569944,0.0688593092,0.076344209,0.42583294,-0.0793252701,-0.0199944468,-0.0796274672,0.435302526,0.1754184113,-0.1882172074,0.1544096029],[0.2248954912,0.0005776649,-0.5733893231,0.0610402327,-0.2193191014,-0.4101386494,-0.2802980333,0.2638697058,0.0549794024,0.3691188873,-0.0832435557,0.2211940641,0.1681360025,0.0068071893,0.0232873937,-0.2443969757],[0.6077447623,-0.0379845662,-0.3477762649,-0.3430923972,0.0399260041,-0.3871161413,-0.4921604332,0.5393035445,0.0760431068,-0.1342244271,0.1072888328,-0.0283632111,-0.0235239679,0.4191054024,-0.1690056592,-0.0112416231],[-0.0224139909,0.216338672,0.8204198557,-0.5883396237,-0.2669111529,-0.4326404148,-0.4270582635,0.0942181931,0.6070879537,0.2009141318,0.0273371905,-0.2535497158,0.0337982194,-0.0773171132,0.2971324056,0.1549144798],[0.3873716303,-0.6098163357,0.1250373766,-0.0901590531,0.3240125672,0.1679565763,-0.0610748931,0.2220899217,0.5818575609,0.086566422,-0.2721441256,0.3876044967,-0.3586743524,-0.1690978545,-0.0174753287,-0.2500320705],[-0.0807313517,-0.0437656227,-0.6149933483,-0.3304012136,0.3646451528,-0.1114716712,-0.4311472808,-0.3858969622,0.4165905015,-0.0409688107,0.193671937,0.0047892588,0.2585761622,-0.0950237421,0.3968050794,-0.3927680921],[-0.4067182134,0.2626159275,0.0119511102,-0.1677845389,-0.1719021575,-0.065321396,-0.1194135003,-0.0497492281,0.3732845941,0.2298102939,-0.4788600214,0.1027044791,-0.3846343411,0.1457660742,-0.0671651067,-0.1802936122],[-0.220939813,-0.3394901419,-0.4740209451,0.0849249234,0.1059882442,0.2212912491,0.0772064921,0.3780438942,-0.2484719792,-0.0912504202,-0.227913338,-0.2107513906,-0.0928285374,0.4083691647,-0.1057197989,0.1760898251],[-0.8069013779,0.1885194729,0.5373769385,-0.1784616711,0.3708134822,-0.2260388213,0.1003494111,0.1869674888,0.2817513262,0.5888191104,0.1659382131,0.0378559144,0.6567553398,-0.2786305218,0.5964645925,0.6235836329],[-0.3120517017,0.6744168033,0.0010508061,0.2965514532,-0.1700593702,0.0110637707,-0.1802551728,0.3184104086,-0.0443035043,0.3891619622,-0.4755467337,0.0920610022,0.492400035,0.1185027634,-0.2059886082,0.2028230876]],"biases":[0.5564788666,-0.7442151464,-0.1669438248,-0.2629550938,-0.4650654366,0.0333290615,-0.5005731986,0.0498536665,0.1323369159,0.7331855863,-0.6681531466,0.5705437467,-0.5969892869,0.0885196143,0.6382024641,-0.5727096453]},"intercept":0.0272524761,"coefficients":[-0.0049548882,0.0024829733,0.0006531548,0.0020448502,0.0026014748,0.0042663898,0.0013100795,0.0013419754,0.0039305798,0.0002652381,-0.0012952227,-0.0027107976,0.0024037421,0.0253316661,-0.01835893,0.0101574263,0.0029924749,0.0097279042,-0.0042532094,0.0092247696,0.0021832165,0.0015200907,0.0110411167,0.007413822,0.0009165838,0.0037454613,0.0014068861,0.0135025888,-0.0019694828,-0.0012516925,-0.0043718428,0.0049976766,0.0012828738],"means":[0.0181985935,0.0449892497,0.0687761454,0.0976564758,-0.0597221355,-0.0266415287,0.9712316891,-0.9028525797,0.0088127646,0.0021759194,0.1275693527,0.2601645266,0.3062193805,0.4211182591,0.9396583122,0.9977704526,-0.1911981632,-0.2788488822,-0.6034290657,0.205425664,-0.2106095825,0.3221539032,-0.6178245532,-0.0775525504,0.034272649,0.0942819373,0.925751345,-0.629049103,0.6632552687,-0.3821758769,0.0834295382,0.7675412514,-0.1072495973],"standard_deviations":[1.0086532578,0.9742250994,0.9380521322,0.9548063724,0.2741502374,0.1762753053,0.179685243,0.3665762253,0.3377639685,0.3312734217,1.037152593,1.0223484039,1.0541153359,0.1632881125,0.3843142756,0.4616702965,1.0411095573,0.5802325618,0.5006430653,0.5861339396,0.6926076372,0.6498328941,0.3618221606,0.5514790604,0.5301613373,0.8036688295,0.1018784069,0.3118168264,0.2649723013,0.5426507815,0.6246770286,0.3273257804,0.5446538137],"training_samples":69924,"validation_samples":12720,"validation_folds":3,"winning_folds":3,"metrics":{"mae":0.20177179,"baseline_mae":0.21240234,"improvement":0.050049,"direction_accuracy":0.560063,"baseline_direction_accuracy":0.490881},"residual_interval_80":{"lower":-0.25108593,"upper":0.3889862,"coverage":0.8},"reliability":0.646235,"selected_lookback_years":25,"lookback_candidates":[{"years":5,"mae":0.20236199,"baseline_mae":0.21240234,"improvement":0.04727,"direction_accuracy":0.546619,"blend_weight":1.0,"nonlinear_features":16,"validation_samples":12720},{"years":10,"mae":0.20193816,"baseline_mae":0.21240234,"improvement":0.049266,"direction_accuracy":0.54827,"blend_weight":1.0,"nonlinear_features":16,"validation_samples":12720},{"years":15,"mae":0.20204221,"baseline_mae":0.21240234,"improvement":0.048776,"direction_accuracy":0.553066,"blend_weight":1.0,"nonlinear_features":16,"validation_samples":12720},{"years":25,"mae":0.20177179,"baseline_mae":0.21240234,"improvement":0.050049,"direction_accuracy":0.560063,"blend_weight":1.0,"nonlinear_features":16,"validation_samples":12720}]},"126":{"horizon_days":126,"lambda":4096.0,"blend_weight":1.0,"feature_transform":{"format":"random-tanh-v1","input_size":17,"hidden_size":8,"weights":[[-0.201473837,-0.1155851004,0.4137856638,0.2542569473,0.0819013081,-0.0900213435,0.1489812461,-0.4122512075],[0.5228998148,-0.0856592841,0.3820092752,-0.2733776475,0.3427773774,0.5395446786,0.4903474356,-0.3019392432],[-0.1111329131,0.082177329,-0.1860401175,-0.2386962219,0.3790919371,-0.1052456937,-0.4211168187,0.5547268868],[-0.0928452314,-0.0831378012,-0.1379874201,-0.1730221994,0.1467149299,-0.1150736153,0.1599904264,0.04598477],[-0.2975697817,0.1984084718,-0.3116950221,0.4327749814,0.1145293367,-0.5813355029,0.0375683501,0.4072615652],[0.3414643391,0.1473936079,0.1173516259,0.0683182027,0.6383454949,-0.401186681,-0.4572644206,0.2405664624],[-0.1575289797,0.0997229855,0.1587329142,-0.0555055009,-0.0494641445,0.1130063167,-0.6117964804,-0.3611500358],[-0.2811435059,-0.3015003394,-0.2129221064,0.4591915127,0.0314917358,0.0764651442,0.0020581782,-0.491305249],[0.8132209029,0.0617639744,0.3892563873,-0.0051334076,-0.312115361,-0.2420082412,0.0753387496,-0.1152260731],[-0.1717289795,-0.0786636254,0.1390457826,-0.0996216758,0.2888197116,0.1602656235,-0.3859982665,-0.5179104845],[0.0755549887,-0.385650445,-0.2828301663,-0.066445537,0.2066100463,-0.231950196,-0.1668738799,-0.1489399174],[-0.047041818,-0.0585687602,0.5696068663,-0.6776054503,0.2223495754,-0.2332420141,0.8021269408,-0.4389493766],[0.128975776,-0.2152593519,-0.0584220174,-0.0233386002,0.194567736,0.5802468077,0.4178068898,-0.2356086008],[0.1165067747,-0.1771006726,0.4314928902,0.3183015198,-0.1509110574,-0.1759697081,-0.3057541589,0.3325274957],[0.1731654697,-0.3853003959,-0.1892014918,0.8504229112,-0.1741475718,-0.3537017177,0.4420356524,0.0673224064],[-0.4130671125,-0.067627159,-0.3174692793,0.0962238469,0.4615210857,0.2378628376,0.0505549835,0.325317777],[0.0001788575,0.1528981065,-0.0252148119,0.1964731528,-0.3196825835,-0.1105496976,-0.0722883665,0.1914881595]],"biases":[0.6282282016,0.3632766903,-0.1764430656,-0.5540739652,0.5325051802,-0.7387349101,0.3554617405,0.7032349143]},"intercept":0.0557891711,"coefficients":[-0.0045136696,-0.0028139725,-0.0005786324,0.0166348512,0.0047005178,0.0025321936,-0.0036020838,0.0058962187,0.0063273591,-0.0050394009,0.006093525,0.001605632,-0.0003998601,0.0444390233,-0.0342387383,0.0227781234,-0.002173542,-0.0149834585,0.0030568995,0.0102709146,-0.0136601528,-0.0116986106,0.0057989202,-0.0099407046,-0.0073053649],"means":[0.0143401331,0.0395605665,0.0595553672,0.0884285571,-0.0622653627,-0.0288161372,0.9726767775,-0.9069485969,0.0068131154,0.001373971,0.1139149956,0.2410213109,0.2845495547,0.4209450967,0.9406897779,0.9991686737,-0.1812733998,0.4232526633,0.0411403199,-0.0259945608,-0.1454544188,0.4738559314,-0.5211542024,0.1961157135,0.5547583077],"standard_deviations":[1.0070665394,0.9720173632,0.9377460313,0.9536371533,0.2735442189,0.1756913658,0.1787525575,0.366892013,0.3378477544,0.3309344748,1.0278273379,1.0163740533,1.0449286049,0.1634376818,0.3841910794,0.4613373506,1.0404496945,0.4066902565,0.5530104299,0.5597330854,0.6440221932,0.557273972,0.3633737586,0.6702269157,0.5290539145],"training_samples":68635,"validation_samples":12448,"validation_folds":3,"winning_folds":3,"metrics":{"mae":0.29123506,"baseline_mae":0.31696606,"improvement":0.081179,"direction_accuracy":0.611665,"baseline_direction_accuracy":0.49526},"residual_interval_80":{"lower":-0.32685761,"upper":0.58966937,"coverage":0.799968},"reliability":0.838246,"selected_lookback_years":25,"lookback_candidates":[{"years":5,"mae":0.29321687,"baseline_mae":0.31696606,"improvement":0.074927,"direction_accuracy":0.571417,"blend_weight":1.0,"nonlinear_features":8,"validation_samples":12448},{"years":10,"mae":0.29182634,"baseline_mae":0.31696606,"improvement":0.079314,"direction_accuracy":0.584672,"blend_weight":1.0,"nonlinear_features":8,"validation_samples":12448},{"years":15,"mae":0.29200019,"baseline_mae":0.31696606,"improvement":0.078765,"direction_accuracy":0.59865,"blend_weight":1.0,"nonlinear_features":8,"validation_samples":12448},{"years":25,"mae":0.29123506,"baseline_mae":0.31696606,"improvement":0.081179,"direction_accuracy":0.611665,"blend_weight":1.0,"nonlinear_features":8,"validation_samples":12448}]}},"limitations":["The current top-market-cap universe introduces survivorship bias.","Corporate-action windows with a daily absolute log return above log(1.5) are excluded.","The model is probabilistic and must not be treated as investment advice."]}